pos,val_*,val_A,val_C,val_D,val_E,val_F,val_G,val_H,val_I,val_K,val_L,val_M,val_N,val_P,val_Q,val_R,val_S,val_T,val_V,val_W,val_Y
0,0.0186,0.213,0.0205,0.314,-0.0208,0.0316,0.398,0.208,0.0313,-0.0025,0.00851,0.0268,0.0341,0.00895,-0.0214,-0.0229,-0.0164,-0.0293,0.223,-0.0334,0.0128
1,0.00817,-0.0254,0.0162,0.0109,-0.00495,0.443,-0.0304,0.0185,0.107,0.0151,0.0322,-0.0267,0.00645,0.0114,0.168,0.0137,0.00428,-0.0251,-0.0191,-0.0117,0.00669
2,0.0196,0.00188,0.000858,0.011,0.0327,0.0144,-0.0271,-0.0758,0.0159,0.00489,0.146,-0.00336,-0.0301,-0.158,0.00185,0.421,-0.00335,0.0729,0.0171,-0.00163,0.00594
3,0.00794,0.666,0.0123,0.259,0.032,0.0255,-0.0243,-0.0198,0.013,0.0558,0.114,-0.0555,0.452,0.0169,0.0103,0.666,-0.0138,-0.0294,-0.0103,0.0275,0.0173
4,0.028,-0.00001,0.00334,-0.00107,0.36,-0.00436,-0.00734,-0.00974,0.00314,0.03,0.0415,0.0262,-0.0215,-0.000415,0.316,-0.0349,-0.0305,0.0124,0.0277,-0.00789,-0.0226
5,0.0258,0.00931,0.167,0.127,0.212,0.154,-0.0349,-0.0157,0.1,0.0478,0.141,0.0439,0.00515,-0.00419,-0.0162,0.249,0.0178,0.033,-0.0264,0.00416,0.00563
6,0.0675,-0.0184,0.0683,0.00351,0.159,0.0228,0.0295,0.017,0.0349,0.00929,-0.0018,-0.112,-0.0198,-0.0167,-0.0168,0.518,0.621,0.332,0.0272,0.271,0.0332
7,0.145,0.441,-0.00337,-0.0957,0.0282,0.0107,-0.0207,0.00899,-0.00683,0.0174,0.332,0.0221,0.0336,-0.0189,0.00195,0.0243,0.418,-0.0222,0.021,0.14,0.0109
8,0.00225,0.296,0.389,-0.023,-0.025,0.0217,0.00431,-0.00398,-0.0102,0.0163,-0.0164,0.0339,-0.0329,0.0281,0.513,0.0214,-0.0162,0.265,0.116,-0.0556,-0.00974
9,0.0397,-0.0148,0.0211,0.0172,-0.00793,-0.00285,0.469,0.0536,0.0305,0.0253,0.154,0.276,0.00793,0.438,-0.013,0.223,0.617,0.000305,0.191,0.218,0.0432
10,0.0628,0.296,-0.0275,0.119,0.0198,0.0328,0.22,0.0298,-0.0104,0.0103,-0.000724,0.0302,-0.00794,0.103,0.681,-0.0382,0.645,0.0233,-0.0175,-0.00983,0.017
11,0.0102,0.241,-0.252,0.000828,0.14,-0.00714,-0.0215,-0.0142,0.0277,0.0236,0.0305,-0.0348,0.0162,0.698,-0.0211,0.0396,-0.00604,0.105,0.0112,-0.00287,0.00372
12,-0.2,-0.016,-0.0256,0.0325,0.0138,-0.0299,0.00467,0.514,0.00395,-0.029,0.124,0.00487,-0.0244,0.503,-0.0276,-0.0531,0.0225,0.0879,-0.00729,-0.0218,-0.0053
13,0.0233,-0.0337,0.284,-0.0134,-0.0133,-0.118,0.216,0.0178,0.0063,0.00516,0.00612,-0.0197,0.00963,0.0272,-0.0163,0.0266,0.322,0.0915,0.00494,0.0233,-0.0246
14,0.0575,0.0184,0.365,0.533,-0.0206,-0.0378,0.143,-0.0165,0.00165,0.00397,-0.0216,0.0235,0.0302,-0.00911,0.0203,-0.0185,0.338,-0.0307,-0.0182,0.511,0.104
15,-0.00844,-0.00235,0.596,0.00918,-0.000906,-0.0392,0.152,0.0116,0.0326,0.0211,0.0107,0.0175,-0.0305,-0.00224,0.00527,0.173,0.0224,0.016,-0.00716,0.152,-0.00105
16,-0.00838,-0.00468,0.0067,0.00582,0.0249,-0.0327,0.00412,0.0189,-0.0054,0.00671,0.0305,0.225,0.217,-0.0314,-0.00135,0.369,-0.00501,0.0869,0.313,0.426,0.0217
17,-0.016,0.0141,-0.0112,0.0113,-0.0281,0.108,-0.225,0.0196,0.0144,-0.00204,0.000228,-0.0293,-0.00619,0.00472,0.29,0.0309,0.0278,-0.251,0.00893,0.0104,0.0085
18,0.14,-0.0314,0.0253,0.00316,-0.0342,0.0275,0.15,0.0678,0.0314,-0.0222,0.0227,0.0876,-0.0335,0.0129,-0.0507,0.0273,0.00491,0.00326,0.011,0.007,0.00152
19,-0.0326,0.0299,-0.0293,-0.0214,0.308,0.00964,-0.00871,0.00516,0.464,-0.00767,-0.0153,-0.0199,-0.0902,0.00805,0.341,-0.029,-0.00862,-0.0299,0.0704,0.0133,0.0119
20,0.0116,0.00259,0.544,-0.00974,0.0225,-0.0189,-0.00801,0.156,-0.00727,0.162,0.488,-0.025,0.011,-0.0026,-0.0272,0.0083,-0.0236,0.0897,-0.0128,0.0212,0.0454
21,-0.0327,-0.0259,0.00175,0.127,0.00539,-0.00589,0.006,0.00899,0.197,-0.0105,-0.00698,-0.0163,0.0155,0.0127,0.0142,-0.00169,-0.0198,-0.0307,-0.0243,0.665,0.0303
22,-0.0102,0.028,0.00983,-0.0668,0.179,0.324,0.107,0.168,0.431,0.0211,0.00458,0.0207,0.215,0.0311,0.0165,0.0349,-0.0803,0.0212,-0.00167,-0.0279,0.0297
23,0.0319,0.00106,-0.00879,0.445,0.0461,0.696,-0.011,0.0281,-0.0118,-0.0152,0.0239,-0.137,0.0113,0.743,-0.0193,-0.00567,0.107,0.488,-0.0581,-0.0124,0.0387
24,0.12,-0.0293,-0.0316,-0.0247,0.0344,0.644,-0.0309,0.0469,0.45,0.0314,0.244,-0.0312,-0.0263,0.022,-0.0303,0.0219,-0.029,0.0128,-0.0359,0.0342,0.16
25,0.0272,0.0475,0.672,0.0074,0.34,0.00519,-0.0341,-0.0121,0.115,0.15,0.0297,0.0284,0.341,-0.0162,0.0203,0.0501,0.565,0.016,0.0268,0.00942,0.0188
26,0.0319,-0.0187,-0.0306,-0.0291,0.0168,-0.029,0.121,0.0252,0.00722,-0.181,0.124,0.0338,-0.0331,0.706,0.34,0.00747,-0.0102,-0.0287,-0.0176,0.682,-0.0122
27,0.0182,0.00732,-0.0227,-0.00213,0.257,-0.00889,0.0173,0.246,0.0109,0.0191,0.122,0.0227,0.687,0.0323,0.696,0.0197,0.0274,-0.00941,-0.00822,-0.0656,-0.0103
28,-0.0234,-0.00985,0.781,-0.0224,0.0116,0.0157,0.12,-0.0259,-0.0118,0.0326,0.00695,-0.0302,0.0338,0.0314,0.637,0.0326,0.00431,0.0655,-0.00402,0.0105,-0.012
29,0.0149,0.0109,0.00381,0.0236,0.0126,-0.0168,0.0291,-0.0172,0.0141,0.0773,-0.0617,-0.00864,0.00975,0.0115,0.561,0.00557,-0.0289,-0.000227,-0.0162,0.173,-0.0166
30,-0.016,-0.0144,0.0139,0.675,0.0104,-0.00282,-0.00508,-0.0113,-0.0299,0.0316,-0.0233,-0.0215,-0.0242,0.223,-0.018,0.0211,0.354,0.196,-0.0139,0.0739,0.00987
31,-0.016,-0.0183,0.0072,0.653,0.279,0.118,0.0226,0.0203,0.0291,0.0289,-0.0111,-0.0057,-0.00371,0.0516,0.284,0.0932,-0.0118,0.177,0.152,0.388,-0.021
32,-0.00154,-0.0148,0.287,0.575,-0.0311,0.0021,0.349,0.131,0.333,0.112,0.00758,0.305,0.00157,0.0101,-0.0336,0.013,-0.000686,-0.0106,0.023,-0.0245,-0.0218
33,0.0584,0.0506,0.634,0.613,0.00825,0.00307,0.0545,0.0138,-0.0252,0.12,0.00289,0.0327,0.318,-0.0499,0.00312,-0.0301,0.115,0.205,0.0122,-0.00105,0.0206
34,0.000232,0.031,0.00955,-0.00392,0.0135,-0.0147,-0.037,-0.0196,-0.0333,0.0285,0.0538,-0.00656,0.822,0.0836,0.535,0.106,-0.00547,0.0244,0.273,0.431,-0.0205
35,0.147,-0.121,0.152,0.00083,0.0124,0.0656,-0.0155,-0.0124,0.047,-0.0127,-0.031,0.105,0.0228,0.0336,0.0326,0.773,-0.0214,0.0066,0.134,0.0289,0.0601
36,0.0192,0.07,0.426,0.00546,-0.0174,0.0195,0.0312,0.0229,0.0688,0.022,0.0277,0.0875,0.00971,-0.0186,-0.0207,0.00572,0.296,0.00968,0.018,-0.0197,-0.0604
37,0.0107,-0.253,0.0221,0.0154,-0.00971,0.14,0.00336,0.175,0.00137,0.01,-0.0189,0.00978,-0.0316,0.0141,0.0133,-0.032,0.195,0.0108,0.00776,0.0277,-0.0148
38,0.0183,0.022,0.0186,0.000672,0.00581,0.0304,-0.0264,-0.0341,0.106,0.00843,0.23,-0.0484,-0.0323,0.0133,0.328,0.0328,0.00856,0.537,0.0339,0.704,0.0285
39,-0.015,0.0173,-0.0173,0.0494,-0.0252,-0.0281,0.00293,0.0137,-0.0231,-0.0323,0.0709,0.00212,-0.00427,0.0245,0.104,0.0186,0.0206,0.496,-0.0128,-0.00789,0.00681
40,0.0333,-0.011,0.0252,-0.00132,-0.00989,0.0186,-0.0134,0.488,0.042,0.0184,-0.0166,0.0191,0.0428,0.00247,0.0172,0.0297,-0.0203,0.736,-0.0147,0.00476,0.00876
41,-0.0221,-0.015,-0.00905,0.0125,0.00868,-0.0237,-0.0159,-0.0182,-0.0434,-0.00102,0.158,0.166,0.0308,0.00989,-0.00641,-0.0171,-0.00105,0.0191,-0.0156,0.654,0.0424
42,0.0423,0.0278,0.0314,0.107,-0.0166,0.00678,0.292,-0.000583,0.129,-0.0602,0.0925,-0.0334,-0.00947,-0.0226,0.155,-0.0156,0.00691,0.00382,0.233,0.54,0.00973
43,-0.000574,-0.0932,0.0051,-0.000918,0.00207,0.526,0.00111,-0.0225,0.254,-0.221,0.00701,-0.021,-0.024,-0.0205,0.127,0.0301,-0.0186,0.00991,0.0208,-0.0201,0.0289
44,0.00185,0.123,-0.0199,-0.00878,0.00567,-0.00165,0.0239,-0.02,0.00263,0.0307,-0.0159,0.0875,0.536,0.00957,0.127,0.637,0.0177,-0.0165,0.0489,-0.023,-0.0226
45,0.0347,0.00484,0.0632,0.158,0.00597,0.00876,0.00021,0.0124,0.174,0.00415,0.16,0.223,-0.018,0.027,0.0168,-0.0129,-0.00977,0.644,0.214,-0.000187,0.231
46,-0.000701,-0.0435,0.0119,0.0265,-0.0117,0.0102,0.0282,0.743,0.0293,0.00978,0.116,0.0153,0.151,0.0239,-0.0757,-0.00939,-0.0241,0.0204,-0.12,0.761,0.00678
47,0.0194,-0.0193,-0.0321,-0.0211,0.0289,-0.0278,0.115,0.556,-0.024,0.00422,0.0343,-0.0328,-0.0332,0.72,0.357,0.431,0.322,-0.000352,-0.0312,0.671,-0.0247
48,-0.0129,-0.0306,-0.0124,0.138,-0.121,0.0227,-0.0251,-0.0114,-0.0241,-0.0163,0.0145,-0.0221,0.828,-0.112,-0.0379,-0.00491,0.75,0.0323,-0.0333,0.0162,0.013
49,0.0585,0.0248,0.232,-0.0312,0.0258,0.441,0.0244,0.00323,0.0201,0.0339,-0.000495,-0.0167,0.0331,0.0264,-0.021,0.000243,0.368,0.0243,0.121,-0.164,-0.00752
50,-0.0125,0.0272,0.0382,0.337,0.099,-0.0197,-0.0103,0.211,0.0172,0.00552,0.0699,0.153,0.398,0.0672,0.0104,0.268,0.00326,-0.0365,0.0165,0.0161,-0.00131
51,0.0835,-0.0572,-0.0193,0.0123,0.00562,-0.0186,0.1,0.331,-0.0202,-0.0311,-0.00653,-0.00695,-0.0181,0.166,0.00918,0.312,-0.0163,-0.00989,0.158,-0.0272,-0.109
52,0.0526,0.13,0.0701,-0.0174,0.159,0.0126,0.0731,0.263,-0.0132,0.0596,-0.00258,-0.0345,0.00506,0.385,0.777,0.00403,0.0197,0.0177,0.236,-0.0174,0.254
53,0.00694,0.308,-0.00447,-0.027,0.0154,0.024,0.00456,-0.0117,-0.0161,0.0109,-0.00481,0.0125,-0.035,0.101,-0.0165,0.244,-0.0174,-0.015,0.0131,0.263,0.0237
54,0.0755,-0.00628,-0.0926,0.0184,0.0213,0.418,0.101,-0.0253,0.0098,-0.0126,0.000961,-0.023,0.00752,0.381,0.012,0.0281,0.0136,-0.0206,0.124,0.0892,-0.00368
55,-0.11,-0.0247,0.0865,-0.0344,0.00292,0.0328,0.119,0.374,0.283,0.00788,0.0318,-0.0312,0.0266,-0.0291,0.247,0.00763,0.00321,0.0134,0.0287,-0.021,0.0173
56,0.021,0.0284,0.0175,0.000657,-0.0306,-0.0213,-0.0247,-0.0665,0.167,0.0161,0.0205,-0.0295,0.786,0.181,0.378,0.0046,0.0174,-0.0142,0.00739,0.028,0.0303
57,0.0116,-0.00351,0.161,0.033,-0.0306,0.00477,-0.000133,-0.0142,-0.0328,0.0135,0.515,0.029,0.027,-0.0574,0.00184,0.0114,0.0338,0.441,-0.0101,0.096,0.237
58,0.00099,0.0823,-0.0115,-0.0343,0.13,0.0215,0.00933,-0.0201,-0.0041,0.0339,-0.0138,0.108,0.00664,-0.00711,-0.00111,0.329,-0.0214,0.373,0.0583,0.184,0.271
59,-0.0607,-0.0203,-0.015,0.00842,-0.00187,0.00301,-0.0308,-0.000478,0.167,0.0287,0.0262,0.00799,0.0272,0.0415,0.0181,-0.0349,0.0282,-0.0201,0.219,0.11,0.00639
60,-0.00613,0.0311,-0.02,0.0715,-0.0348,-0.0826,-0.0155,-0.0103,-0.012,-0.0314,-0.00317,-0.00191,-0.0191,0.125,-0.0329,-0.0333,0.372,-0.0136,-0.00216,0.211,-0.0193
61,0.0346,-0.00929,0.029,-0.0225,0.0982,-0.0234,-0.0148,0.00404,0.0294,0.000692,0.00678,-0.0331,0.0138,0.184,0.0427,0.017,0.00662,0.503,0.66,-0.0835,0.252
62,-0.0638,-0.0233,-0.0527,0.00649,-0.0832,-0.0321,-0.00231,0.00847,0.0171,0.0706,0.216,0.1,0.0133,-0.203,-0.000989,-0.343,-0.024,0.326,0.0142,-0.0164,0.0134
63,-0.0141,0.264,-0.297,0.0279,0.154,0.0839,0.0315,0.27,0.0341,-0.0614,0.619,0.135,0.416,0.0309,-0.00342,0.034,0.691,0.268,0.00672,0.022,0.217
64,-0.0173,0.0262,0.0194,0.0151,-0.00805,0.34,-0.00188,0.0745,-0.00431,-0.0469,-0.0195,-0.0145,0.303,-0.191,-0.0184,-0.00432,-0.0225,-0.031,-0.02,0.0135,-0.0248
65,0.0154,-0.0276,0.0331,0.035,-0.132,-0.0189,-0.0234,-0.0086,-0.00551,0.0132,0.373,0.113,-0.0206,0.0221,0.304,0.106,0.00976,0.326,0.0305,0.00589,0.0334
66,-0.0147,0.028,0.0231,0.187,0.0101,0.00811,0.0157,0.167,-0.0079,0.0348,0.364,0.271,0.145,0.147,-0.0197,0.00281,0.0179,0.0941,0.292,0.0222,0.0117
67,0.0125,0.0303,0.0917,-0.0207,-0.0285,0.0349,0.106,0.0208,-0.116,0.0315,0.0119,0.0256,-0.00235,-0.0196,-0.0259,0.133,0.152,-0.0467,0.0091,0.031,-0.0284
68,-0.00192,0.0142,0.491,-0.0205,-0.00835,-0.025,0.0178,0.0489,0.0321,0.000845,-0.0184,-0.011,0.385,0.207,0.00845,0.174,0.0778,-0.0295,0.00746,0.0294,0.0235
69,0.0203,0.0141,-0.0195,0.383,-0.0155,0.0198,0.071,0.123,0.151,0.0567,0.189,-0.0341,-0.00962,0.44,-0.00402,0.016,0.143,-0.0178,0.00829,0.0281,-0.00633
70,0.0602,0.598,0.636,0.031,-0.0996,0.122,0.00894,0.0248,-0.00215,0.0256,0.0267,-0.0066,-0.00693,0.0128,-0.0266,-0.00712,-0.0336,-0.00377,0.00479,0.00379,0.00991
71,0.00245,0.313,0.474,0.369,0.0215,0.0136,-0.0276,0.486,0.0276,0.00667,0.0793,0.122,-0.0232,-0.0075,0.00802,0.182,-0.0195,-0.0122,0.00219,0.307,0.0144
72,0.02,-0.0332,0.00676,-0.0255,-0.00871,-0.0303,-0.0137,-0.012,-0.019,-0.00725,-0.00933,-0.00593,0.0239,-0.0224,-0.00109,0.0634,0.0892,0.0173,-0.00546,-0.0175,0.00398
73,0.0179,-0.0164,0.00265,0.00268,-0.0346,0.000394,0.0332,0.102,-0.0212,0.0257,-0.0132,0.00773,-0.0115,-0.0296,0.0197,0.0255,0.0187,-0.0249,-0.035,-0.0346,0.00122
74,0.00991,0.211,0.574,0.0121,0.0408,0.139,0.0127,0.0149,0.0146,-0.1,0.0141,-0.015,0.015,-0.0221,0.000884,-0.0123,0.129,-0.223,0.0229,-0.00117,-0.0112
75,0.0029,0.126,0.253,-0.0311,0.0702,0.0177,0.0287,-0.0202,0.0104,0.0383,-0.0246,0.0194,0.0257,-0.034,0.00743,-0.0142,0.0242,-0.0225,-0.134,-0.0289,0.037
76,0.0357,0.131,0.504,-0.0278,-0.0281,0.0391,0.0621,-0.0316,-0.00191,-0.0203,0.411,0.0352,0.0309,-0.0135,-0.0288,0.00643,0.0319,-0.0304,0.416,0.0335,0.0784
77,0.0205,-0.0072,0.00646,0.504,0.552,0.0187,-0.0182,0.0165,0.092,-0.0324,0.00415,-0.00254,0.0136,0.027,-0.0297,0.0246,0.0209,-0.0238,-0.0225,0.314,-0.00289
78,0.0172,0.642,0.00436,0.032,-0.00101,0.0907,0.0327,0.0289,0.0878,-0.00781,0.0302,0.0113,-0.00201,0.109,-0.00291,0.0277,0.208,0.402,-0.0214,0.242,0.027
79,0.0155,0.336,0.185,0.00415,0.0808,0.111,0.00509,-0.0024,-0.00615,-0.0209,0.0278,-0.00266,0.0263,0.0261,0.00765,-0.00162,0.000855,0.145,0.0157,0.0164,-0.129
80,0.0149,-0.0536,-0.00757,0.299,0.0215,-0.00747,-0.00295,-0.0889,0.00509,0.033,-0.0158,-0.00822,-0.0275,-0.00844,0.0556,-0.116,0.141,-0.0157,-0.0239,-0.0244,0.00759
81,-0.0643,-0.0336,-0.00195,0.0273,0.0114,0.174,0.148,0.0153,0.117,0.00427,0.0178,-0.0000855,0.00822,0.039,0.0676,0.215,-0.0146,-0.0346,0.0263,0.0335,0.0362
82,-0.017,-0.0345,-0.0346,0.00894,0.676,-0.0319,-0.00456,-0.0294,0.0373,0.00722,0.118,-0.0826,-0.13,0.0298,0.297,0.0098,0.00715,0.471,-0.117,0.0219,0.0418
83,0.188,0.00554,-0.06,-0.033,0.0131,0.024,0.0305,0.709,-0.0136,0.418,0.01,0.016,-0.0118,-0.0123,-0.0282,0.643,-0.00633,0.126,-0.0297,0.0236,0.112
84,-0.0139,0.0228,-0.0779,0.443,0.0142,-0.00413,0.00194,-0.0159,0.0802,0.0105,-0.0295,0.0558,0.0153,0.066,0.0195,0.0301,0.0258,0.574,0.0241,0.0349,-0.0153
85,0.0207,-0.0069,0.0321,0.437,0.00204,0.00403,-0.0482,-0.00646,0.0748,0.0926,-0.00908,-0.038,0.0566,0.0104,-0.0549,0.015,-0.0103,0.0228,-0.0286,0.172,-0.0226
86,-0.0188,0.141,0.598,0.0299,0.431,0.0248,0.026,0.277,0.131,-0.0144,-0.0126,0.0236,-0.00875,-0.00787,-0.0228,-0.00205,0.028,0.289,-0.0264,0.0159,-0.00298
87,0.0374,-0.0308,-0.00126,0.411,0.292,-0.00184,-0.0151,0.34,-0.0107,-0.0319,-0.0966,-0.00599,-0.00323,0.0851,0.0178,-0.0223,0.0087,-0.0184,0.0741,-0.00504,-0.000686
88,0.0265,0.201,0.0174,0.448,-0.0142,-0.0277,0.00788,-0.0281,-0.019,0.00819,0.0333,-0.0071,0.744,0.00482,0.479,0.699,0.183,-0.0644,0.0291,0.0137,0.0851
89,-0.0099,0.124,0.0277,0.0347,0.481,0.0283,0.013,0.0155,0.152,-0.0157,-0.0168,0.0526,0.0129,0.535,-0.0456,0.0152,-0.021,-0.000453,0.0175,0.549,0.243
90,-0.0656,0.115,0.0887,0.0208,0.455,-0.00209,0.00255,0.595,-0.0023,0.183,0.0598,0.0232,0.0926,-0.0203,-0.0244,-0.117,-0.057,0.00624,-0.0165,0.0128,0.0323
91,-0.0198,0.0000331,0.0282,-0.00695,0.0171,0.115,-0.0232,0.422,0.131,0.0348,-0.0298,-0.0131,-0.0221,0.025,-0.0316,-0.00964,0.642,-0.0936,0.13,0.0172,0.0141
92,0.0228,0.00833,0.11,0.033,0.0326,0.0145,0.00147,-0.043,0.026,0.0386,0.0893,0.0198,-0.023,-0.0131,0.0184,-0.00616,0.0237,0.32,-0.0183,0.0224,0.0266
93,-0.0324,-0.116,-0.0188,-0.00522,-0.00585,0.231,0.117,0.143,-0.0228,0.0322,0.0155,-0.0342,-0.00249,-0.00924,-0.0331,-0.0232,-0.0345,0.0171,0.0219,-0.00442,0.0125
94,0.0146,0.00835,0.156,-0.0318,0.015,0.0234,0.0275,-0.0324,-0.0308,-0.0329,-0.00269,0.0188,-0.0345,-0.000981,0.108,0.295,0.0177,0.571,-0.00463,0.479,0.0725
95,0.0216,0.00952,0.0279,0.00453,0.012,0.186,0.0103,0.409,0.225,0.0154,-0.0244,0.0333,0.0156,0.111,0.429,-0.027,-0.0294,0.00966,-0.0349,-0.0281,0.038
96,-0.00392,-0.0869,0.0331,0.0299,-0.0263,0.148,0.104,-0.0292,0.012,0.182,-0.00756,0.0188,0.0142,0.171,0.0299,-0.0237,0.031,0.361,-0.0237,0.0228,0.00734
97,0.00599,0.00958,0.13,0.0312,0.0236,0.0592,-0.0283,0.0168,0.00603,0.00925,-0.0125,0.0142,-0.0237,0.0183,0.573,0.0423,0.55,0.364,0.0235,0.028,0.015
98,-0.0301,0.0779,0.0183,0.0543,-0.00261,0.0174,0.0178,0.00445,0.0155,0.0327,-0.0115,-0.0207,0.033,-0.0226,0.449,0.736,0.675,0.367,-0.0121,0.0164,0.021
99,0.0378,-0.0226,0.124,0.00437,-0.00299,0.0247,0.0278,0.0106,-0.0344,-0.127,-0.0268,-0.00502,0.524,0.0288,-0.0194,-0.0191,0.501,0.00521,-0.00045,0.0237,-0.0109
100,0.0128,0.014,-0.0133,0.0646,-0.00914,0.237,-0.0232,0.0196,0.287,0.225,-0.0298,-0.00564,0.497,-0.0186,0.0105,0.00938,-0.0287,-0.0123,0.0122,0.138,0.0221
101,-0.0345,0.0206,-0.0206,0.0756,0.0107,0.00228,0.519,0.00993,0.0278,-0.0288,-0.0223,0.0273,-0.0288,0.134,0.514,-0.000167,-0.0309,0.136,0.426,-0.0146,0.023
102,0.0495,0.00766,0.085,0.096,0.208,0.189,0.0171,0.00322,0.00484,-0.0112,0.0124,-0.000201,-0.0317,0.167,0.405,0.0136,0.627,-0.0252,0.0299,-0.0251,-0.103
103,0.0606,0.331,-0.0000965,0.0981,-0.033,0.00755,-0.0038,-0.0255,-0.00971,-0.00251,0.000183,-0.0135,-0.018,0.0272,0.419,0.0316,0.0246,0.0862,0.356,0.153,0.0288
104,0.0346,0.0851,-0.0028,0.0436,0.231,0.152,0.03,0.0127,-0.00242,0.0244,0.0825,-0.0257,-0.0118,-0.0191,0.024,-0.0227,-0.00879,0.172,0.157,0.909,0.0564
105,-0.0105,-0.0199,0.00317,0.349,0.159,-0.398,0.0186,0.0102,0.174,-0.0142,-0.00102,0.0224,0.0255,0.0013,0.0207,-0.0345,0.361,-0.0213,0.00619,0.0311,0.0312
106,-0.0289,0.0116,0.173,-0.0148,0.0739,-0.0177,0.226,0.0242,0.26,-0.00613,0.0239,0.0957,0.269,0.032,0.386,-0.0234,-0.00308,0.337,0.268,-0.0128,0.101
107,0.0287,0.0369,0.188,0.253,-0.0316,0.0329,0.473,0.0185,0.154,0.212,0.00233,0.0964,0.000201,0.0735,-0.0162,0.00901,-0.0184,-0.00856,0.281,0.0237,-0.00699
108,0.0507,0.131,-0.0092,0.00511,0.033,0.0171,0.233,0.00503,0.0105,0.00479,0.0662,-0.0146,-0.00432,-0.0326,-0.00687,-0.117,0.00076,0.00854,-0.0315,0.0204,-0.0334
109,-0.0328,0.00468,-0.0213,-0.00211,0.251,-0.00576,-0.15,0.0126,-0.0329,0.341,-0.00472,0.055,0.433,-0.00795,0.104,-0.00448,-0.00937,0.0319,-0.0349,0.0339,0.0447
110,-0.0319,-0.0368,-0.0118,-0.0347,0.0078,0.719,0.336,0.0509,0.166,0.47,-0.00858,0.0143,0.0136,0.0176,-0.106,0.00299,0.0233,0.202,0.0744,0.0501,0.0233
111,0.0057,-0.00581,-0.00345,0.0346,-0.0211,-0.0115,-0.0449,0.0145,0.192,0.00951,0.0177,0.0346,0.341,-0.00379,0.219,-0.00942,-0.0199,0.561,0.227,-0.00353,0.00754
112,-0.0203,-0.00819,-0.0226,0.0531,-0.0728,0.0335,0.0119,0.0101,0.166,0.169,0.205,0.0241,-0.00344,0.00317,-0.018,0.0166,0.00874,-0.0281,-0.0102,-0.0254,0.0185
113,-0.022,-0.0171,0.371,-0.0317,0.0302,0.409,0.161,-0.0114,-0.0333,0.321,0.00967,0.0245,0.0265,0.0237,0.592,0.171,0.0133,-0.0192,-0.0343,-0.00914,0.00703
114,-0.00936,0.161,0.0292,-0.0265,0.0145,0.0825,0.00166,-0.231,0.317,0.172,0.000924,0.00428,0.00954,0.00865,-0.034,0.0472,-0.0142,-0.0106,-0.0226,0.0307,0.677
115,0.0591,-0.0638,0.0161,0.0323,-0.00865,0.00795,0.214,-0.0187,0.151,-0.031,0.0245,0.023,0.00768,-0.0221,0.014,-0.00807,0.00412,-0.0335,0.0205,0.00478,-0.0531
116,0.0531,0.128,0.124,0.0302,-0.0111,0.17,0.0401,0.00337,-0.0191,0.0169,-0.000103,0.0176,-0.0279,-0.00254,0.255,-0.0115,0.035,-0.00745,0.0254,0.0273,-0.0171
117,0.0604,-0.0123,0.0253,0.000283,0.0211,-0.0343,-0.0638,0.747,0.0222,0.298,0.0238,0.344,0.657,0.0138,0.0282,0.0119,0.0209,-0.0122,0.00429,-0.016,0.452
118,-0.0352,0.0133,0.0305,-0.0207,0.0246,-0.0321,0.353,0.0392,-0.0276,0.155,-0.00836,0.358,-0.022,0.0067,-0.0109,-0.00154,0.0576,0.0278,-0.0306,0.0315,0.367
119,0.0643,-0.00322,0.252,0.277,-0.0251,-0.0212,-0.0301,-0.00931,0.0332,0.263,-0.0177,0.259,-0.033,0.163,-0.0093,-0.0313,-0.027,0.165,-0.00943,0.0107,0.224
120,0.0342,-0.00206,0.0326,0.019,0.018,0.029,0.398,0.00811,-0.0113,-0.00987,-0.0276,-0.174,0.0209,0.151,0.0226,0.0191,0.0267,0.0135,0.0742,-0.00436,0.000744
121,-0.0215,-0.00542,-0.0102,0.00559,0.275,0.485,0.00435,0.00399,0.0326,0.387,-0.0176,-0.0291,-0.0193,-0.0148,0.0731,-0.00741,0.0537,0.081,-0.000186,-0.0515,-0.0173
122,0.0202,-0.0187,0.357,0.0342,0.0129,0.257,0.0143,0.026,0.0286,0.237,0.00617,0.0335,0.575,0.185,0.107,0.0341,-0.00132,-0.00589,0.608,0.0251,-0.0337
123,-0.00614,-0.00479,0.034,0.0339,0.017,0.301,0.376,0.638,-0.0751,-0.0329,-0.0254,-0.00665,-0.001,0.14,-0.0119,0.0304,0.0322,-0.044,0.0446,-0.0166,-0.00886
124,-0.0128,0.255,0.634,0.572,0.0295,-0.00786,-0.0334,0.0324,0.071,-0.0138,0.0438,0.023,0.0173,0.0223,-0.0167,-0.0185,0.11,-0.0261,-0.00135,0.0293,0.0233
125,-0.0285,-0.0291,-0.0296,-0.00942,0.00867,-0.0116,-0.0165,0.0155,-0.0538,-0.00806,-0.0224,0.0186,-0.0317,0.0159,0.155,0.586,-0.000174,0.0607,0.148,0.75,-0.015
126,0.0208,-0.0153,0.0115,-0.0244,0.299,0.0239,0.114,0.71,0.00485,0.0114,-0.0011,-0.0279,0.00592,0.0186,-0.00965,-0.0293,0.678,-0.00762,0.113,-0.0118,0.378
127,0.00814,0.0527,0.0294,0.00428,-0.0118,-0.0154,-0.0226,-0.00132,0.266,0.0341,-0.00323,0.275,0.0323,0.0792,0.303,-0.0282,0.0194,-0.034,0.0786,0.0187,-0.0191
128,-0.0176,0.0271,0.0186,0.0126,-0.032,0.443,0.0294,0.000883,0.00387,0.0158,-0.0285,-0.022,0.133,0.00669,-0.00728,0.703,-0.00981,0.297,0.0452,-0.0331,-0.0252
129,-0.00745,0.00727,-0.0224,0.0128,-0.0329,0.00137,0.124,-0.0156,0.0353,0.0307,-0.252,0.0326,-0.0294,-0.00428,0.00596,0.00132,0.00532,0.19,0.0249,0.00213,0.677
130,-0.0117,0.0149,-0.0211,0.0426,0.0202,0.00227,-0.0324,0.454,-0.000263,-0.0265,-0.00494,-0.0172,0.0128,-0.0719,-0.00563,-0.0107,0.00324,0.123,0.0389,0.522,0.335
131,-0.0856,-0.0284,0.077,-0.0313,0.0301,0.019,0.0254,0.0802,0.0911,0.0631,0.164,-0.00324,0.109,0.0101,0.0227,-0.0346,-0.0279,0.0175,0.0567,0.502,-0.00991
132,-0.0187,-0.0036,-0.0165,-0.0226,0.191,0.0137,-0.00567,-0.0179,0.178,0.0244,0.105,0.00822,0.694,-0.201,0.312,0.63,-0.00575,0.0331,0.0184,0.0103,-0.00268
133,0.0149,-0.03,-0.00788,0.0279,-0.00464,0.178,-0.0046,0.35,-0.24,0.0219,0.176,0.718,0.0112,0.136,-0.00529,0.395,-0.0298,-0.0137,0.0296,-0.0364,-0.0302
134,0.0229,0.0148,-0.0165,0.316,0.00467,0.191,-0.0231,0.672,-0.035,0.026,-0.0115,-0.0163,0.00882,0.0159,-0.0172,-0.0139,-0.0347,0.0195,-0.0226,0.199,-0.0196
135,0.0286,0.0377,-0.0343,0.0192,0.134,-0.0128,0.148,-0.00102,0.0191,-0.0342,0.0303,-0.0124,-0.0138,-0.0347,-0.0105,0.0789,0.0163,-0.0149,-0.0272,0.0244,0.135
136,-0.125,0.102,0.0261,-0.0158,0.65,0.00447,0.249,0.00537,-0.0279,0.00852,-0.0304,0.012,0.0218,-0.0112,0.00396,0.452,0.412,0.035,-0.00978,0.0155,0.083
137,-0.00816,0.15,0.0584,-0.0182,0.0136,-0.0309,0.0945,0.0215,-0.0262,0.0156,0.00075,0.303,0.0137,0.053,0.0371,0.00865,-0.00828,0.548,0.119,-0.0285,-0.0222
138,-0.0142,-0.0268,0.12,-0.0282,-0.0302,-0.0019,-0.0296,-0.0236,0.0047,0.00357,0.106,-0.0266,0.0045,-0.0177,-0.0207,0.0199,0.309,-0.00264,-0.00969,-0.0189,0.394
139,-0.103,-0.00311,0.322,-0.0252,-0.136,0.166,-0.0294,-0.00896,0.0236,-0.0163,-0.0226,0.0622,0.0189,0.0299,0.00904,-0.0172,0.449,-0.0162,-0.0271,-0.0339,0.211
140,0.0252,-0.0252,0.00695,0.469,-0.000125,0.11,0.237,0.0336,-0.0209,0.129,-0.0128,0.0241,-0.0297,0.173,0.0148,-0.0052,-0.0236,-0.0381,0.153,0.296,0.0212
141,0.066,0.0272,0.019,0.352,-0.0289,-0.0163,0.00526,0.0162,-0.0273,0.0291,-0.00628,-0.00322,0.00552,-0.0105,-0.0093,0.0055,-0.0149,0.128,-0.0306,0.222,-0.0296
142,0.0115,0.122,0.0864,0.0151,0.0187,-0.0326,-0.00692,-0.0202,-0.00879,0.167,0.0202,-0.00827,-0.00541,-0.0172,0.0319,-0.0338,0.475,-0.00119,0.0135,0.466,0.157
143,0.0264,0.0065,0.0282,0.0187,0.0208,0.0765,0.305,0.0126,-0.0317,0.0257,0.00081,0.0247,0.0105,-0.0278,0.0197,-0.0126,0.0155,0.281,-0.00918,-0.0172,0.102
144,-0.0022,-0.00502,0.00272,-0.0182,-0.00508,-0.0285,-0.0231,-0.144,0.446,0.000538,0.021,0.0341,0.144,0.106,-0.0231,-0.0214,0.218,0.0498,0.0343,-0.0293,0.00848
145,-0.00956,-0.0208,0.636,-0.00702,-0.00503,0.113,0.00546,-0.0164,0.272,0.0305,0.0263,-0.0202,-0.0512,0.07,0.0266,0.0103,-0.0675,-0.000771,0.416,0.0283,0.0333
146,0.00116,0.0261,0.0075,0.241,-0.0714,0.0289,0.0276,0.0286,0.0144,-0.000744,0.013,-0.0014,0.0227,0.00629,0.0178,-0.0315,0.00495,0.0152,0.0212,-0.0197,-0.0274
147,0.0209,0.272,0.011,0.424,-0.0242,-0.00763,0.0232,0.134,0.0242,-0.0187,0.0829,0.0109,-0.0146,0.0753,0.0678,0.109,0.029,-0.00547,-0.0331,-0.0227,-0.0995
148,-0.104,-0.00212,-0.00767,0.0282,0.0204,0.032,-0.0344,-0.0201,0.17,0.0376,0.114,0.00574,0.139,0.263,0.000155,0.00456,0.0298,0.0171,0.21,0.0346,0.0133
149,-0.024,-0.0318,0.0315,0.00538,-0.00909,0.034,-0.0246,0.204,0.0952,0.0311,0.0537,0.00337,0.0237,0.0294,0.0344,0.0296,0.62,0.242,0.224,-0.0149,0.0166
150,0.0132,0.242,0.0299,0.222,0.0102,0.126,-0.0274,-0.016,0.0282,0.146,0.0348,-0.00941,0.298,-0.0313,-0.0204,0.0852,-0.00235,-0.0305,0.156,0.58,-0.00614
151,0.181,-0.0202,-0.0282,0.028,-0.0726,0.00672,-0.0231,-0.0338,0.0706,-0.0245,-0.0204,-0.00936,0.00257,-0.0162,0.00172,-0.0346,0.0322,-0.0263,-0.021,0.0247,-0.00494
152,-0.00759,-0.0184,-0.0281,0.261,0.0119,-0.00382,0.474,-0.0202,-0.0418,-0.0118,-0.0331,-0.164,-0.00194,-0.00101,0.0319,0.00857,-0.0251,0.00906,0.124,-0.0215,0.0138
153,0.0471,-0.0147,0.00646,-0.0214,-0.0121,-0.0241,0.527,0.106,0.138,0.0276,-0.0108,0.0161,0.737,-0.0208,-0.0175,0.0872,-0.0226,0.0309,0.0842,0.0634,-0.014
154,0.0229,0.203,0.612,0.0234,-0.0046,-0.0743,-0.0184,0.0524,0.00777,-0.0208,0.0791,0.136,-0.0232,-0.0239,-0.00866,-0.0203,0.0091,0.699,0.0255,0.0014,0.226
155,-0.0232,0.273,0.00678,-0.0212,0.055,0.0616,0.227,0.0243,0.067,0.0158,0.373,-0.0294,-0.0223,0.0212,-0.0322,0.37,0.035,0.614,-0.00792,0.0126,-0.0125
156,-0.0147,-0.0243,-0.028,0.00226,-0.0247,0.0123,0.308,0.0272,-0.0257,-0.0169,-0.215,0.0502,-0.0142,-0.0146,-0.0338,0.147,-0.00344,0.0274,0.0191,0.0143,0.646
157,-0.0112,0.124,0.581,0.0271,0.524,0.0245,0.0172,0.032,-0.0165,0.0473,0.114,-0.00153,0.572,-0.00536,0.143,0.0675,0.0945,0.165,-0.0371,0.00153,0.383
158,0.00274,0.331,-0.0463,-0.021,-0.0174,0.0296,-0.0205,-0.0114,0.352,-0.0115,0.0265,-0.00441,0.0225,0.0175,0.0327,0.00646,0.00646,0.00467,-0.0319,0.0277,-0.0308
159,0.0543,0.0256,-0.0195,-0.00677,-0.0221,0.00619,0.358,0.0266,-0.0167,0.124,-0.00441,0.00164,0.0188,0.0399,-0.0297,0.00296,-0.00921,0.027,0.0185,0.111,-0.0249
160,0.0822,0.0298,0.098,-0.00672,-0.00306,0.0478,-0.0289,-0.0121,-0.0308,0.0000819,-0.0328,0.0192,0.392,0.0581,0.143,-0.00642,0.0369,0.133,-0.0249,-0.112,0.0347
161,0.123,-0.0237,-0.0333,0.022,0.00431,0.0582,0.101,-0.0254,0.0343,0.0197,0.00104,-0.028,-0.0176,0.0226,-0.0532,-0.00691,0.00276,0.364,0.0381,0.0266,0.247
162,-0.00254,-0.00866,0.726,0.0193,0.0304,0.223,0.00283,0.00619,-0.00391,0.0248,0.35,-0.0177,0.606,-0.000916,0.134,0.175,0.0271,0.255,0.00776,-0.00365,-0.0146
163,-0.0209,0.0191,-0.0318,0.793,0.707,0.029,0.26,0.407,-0.00625,-0.0317,0.0415,0.599,0.888,0.0222,0.00335,0.000132,0.0286,0.0221,0.0227,0.0209,0.00856
164,0.0194,-0.0242,0.00133,0.00884,0.00946,0.0296,-0.00521,0.017,-0.0131,-0.0335,0.0254,0.0246,-0.0275,-0.0129,-0.0117,-0.0128,0.0365,0.0176,0.129,0.0772,-0.0345
165,0.025,-0.0326,-0.0102,-0.00446,0.012,0.162,0.0146,0.636,-0.0073,0.016,0.044,0.0332,-0.0326,-0.145,0.119,0.000968,0.0208,0.169,0.0189,0.0691,-0.0191
166,0.145,0.0309,0.427,-0.0306,-0.0164,-0.00823,0.722,-0.0096,-0.0205,0.275,-0.131,0.199,0.615,-0.00329,0.0222,-0.0111,0.0669,0.248,0.0197,0.0246,0.0275
167,0.00628,0.0886,-0.00414,0.0293,-0.0115,0.137,-0.000786,0.0332,0.0349,0.0211,-0.00249,0.159,0.66,0.04,0.00764,-0.0289,-0.0299,0.0873,0.0462,0.0603,0.053
168,-0.0179,-0.0132,0.0119,-0.0325,0.355,0.0183,-0.0315,0.421,0.0047,0.172,-0.0172,-0.00616,-0.0106,0.0498,-0.00801,-0.00122,0.469,0.261,0.0125,-0.00896,0.00382
169,-0.0269,0.153,0.00384,-0.0307,0.13,0.0112,-0.0175,0.0313,0.0318,0.0196,0.0106,0.212,0.012,0.055,0.191,0.575,-0.0053,-0.0401,0.045,0.0114,-0.00232
170,0.0536,-0.00388,-0.0302,0.593,0.494,0.0366,0.0925,0.0232,0.033,-0.00796,-0.0134,-0.0401,0.0242,-0.00763,-0.0279,-0.00537,0.000934,0.0265,-0.000486,-0.00951,0.185
171,-0.00595,0.178,0.141,0.483,0.00762,0.0174,0.0101,-0.0195,-0.0184,0.165,-0.03,0.0885,-0.0067,-0.0048,-0.00962,0.0154,-0.0223,0.0146,-0.0159,0.00424,0.742
172,-0.00949,0.0243,-0.0152,-0.0635,-0.0125,-0.0306,0.033,0.747,-0.0323,-0.0127,0.0151,-0.0188,0.293,-0.00311,0.215,0.0157,0.0284,-0.0138,0.0735,0.0147,-0.00911
173,0.0462,-0.00853,0.00747,0.186,-0.0207,-0.0261,-0.0445,-0.0163,0.0346,0.000437,-0.0106,-0.0347,0.00783,0.0268,0.0608,0.0149,0.02,0.00243,0.0532,0.0262,-0.0215
174,0.122,0.086,0.043,-0.0112,0.451,0.566,-0.0265,-0.00665,0.0271,-0.0349,0.0189,-0.0116,-0.0194,0.0802,-0.0298,-0.0324,0.125,0.0243,0.0114,0.0219,0.00466
175,0.00336,0.111,0.238,0.219,-0.0233,0.0232,-0.108,0.729,0.00211,0.00914,-0.0262,0.606,-0.0743,-0.0136,-0.00523,0.017,-0.161,-0.00735,0.0273,0.323,-0.0342
176,0.0399,-0.014,-0.0231,-0.0148,0.0254,-0.0223,0.00204,0.553,-0.00579,-0.0311,0.00551,-0.0181,0.725,0.00731,-0.0266,0.842,0.00278,0.147,-0.0445,-0.0112,-0.00577
177,0.0163,0.511,0.1,0.0294,-0.00201,-0.0263,-0.0233,0.0129,0.0697,-0.0238,0.0176,-0.0167,-0.019,-0.0251,0.303,0.364,-0.0259,0.244,-0.329,-0.0185,-0.0014
178,-0.0254,0.414,0.0347,-0.0161,0.753,0.0347,0.0162,-0.00378,-0.0304,0.121,-0.0129,0.0326,0.935,0.0184,0.344,0.0222,0.128,-0.00229,-0.0113,-0.00187,-0.0179
179,-0.0338,0.013,0.0171,-0.0195,0.0231,0.0277,0.166,-0.0186,-0.0337,0.0325,-0.0123,0.0134,0.0163,0.0362,-0.0327,0.245,-0.0104,-0.0311,0.0737,0.343,0.0243
180,0.0582,0.00378,0.00513,0.0306,0.0268,0.331,0.00912,0.0132,-0.0313,-0.0018,0.0011,-0.0239,-0.0761,0.024,0.262,0.0937,0.496,-0.00261,-0.0197,-0.0305,-0.0212
181,0.0894,0.14,0.253,0.0158,-0.00799,0.00901,-0.031,-0.004,0.0178,0.0696,-0.0152,0.0000568,-0.0196,0.00696,-0.0185,0.0148,0.674,-0.00691,0.0135,0.0253,0.0583
182,0.0994,-0.00905,0.188,0.467,0.0182,0.0336,-0.0256,0.00828,-0.022,-0.016,-0.0115,-0.0221,-0.00606,0.00917,-0.0199,-0.0297,0.337,0.174,0.148,0.196,0.0284
183,-0.0253,-0.0266,-0.0402,0.606,-0.0565,-0.0158,0.0234,0.0121,0.744,0.053,0.157,-0.0735,0.715,0.0193,-0.0165,0.0161,-0.0334,0.261,-0.019,0.0872,0.0715
184,0.0173,0.0111,-0.0252,0.00986,0.077,0.568,-0.0644,0.0336,-0.034,0.031,-0.00839,-0.00376,-0.0247,-0.00135,0.272,0.0288,0.0153,-0.00229,0.0232,0.00996,-0.0145
185,0.0273,0.0274,0.0176,0.00973,-0.0225,0.4,-0.0208,0.0908,-0.0207,-0.0137,-0.0466,0.0136,-0.00841,0.0202,-0.0136,-0.00613,0.344,-0.0344,-0.0195,0.0669,-0.0421
186,0.013,-0.0104,-0.0139,0.00707,0.382,0.337,0.0283,0.0229,0.584,-0.0108,-0.0163,0.019,-0.00951,0.0286,0.0278,-0.0221,0.317,0.207,0.0216,0.000541,0.145
187,-0.0344,0.0244,-0.022,-0.00639,0.0158,0.02,-0.014,0.00607,0.2,-0.02,0.0461,-0.0139,0.667,0.0182,0.117,0.282,0.314,-0.00098,0.0633,0.488,0.0274
188,0.031,-0.0135,-0.0153,0.474,0.15,0.028,0.019,0.00937,0.276,-0.0247,0.0188,0.158,0.732,-0.00209,-0.106,0.0101,-0.00156,0.173,0.0247,0.0306,-0.0676
189,-0.021,-0.0328,-0.00821,0.223,0.254,-0.0186,0.281,0.119,-0.0189,0.235,-0.0869,-0.0349,-0.0152,0.0574,0.209,0.2,0.235,-0.00538,0.0205,-0.0237,-0.00834
190,0.068,-0.0137,-0.0148,0.0109,0.0499,-0.0169,0.0311,0.000605,-0.0462,-0.0171,0.0605,0.168,0.621,-0.0309,0.0638,0.00976,0.00941,-0.0344,0.13,0.0128,-0.217
191,-0.0216,0.0163,0.00873,-0.0151,-0.0221,0.0184,0.684,0.0759,0.0173,-0.0183,-0.0627,0.158,0.663,0.0261,0.162,0.0894,-0.0946,0.00734,0.00727,0.0327,0.0241
192,0.00443,-0.00475,-0.0319,0.0588,0.00845,-0.0216,0.0258,0.0385,0.00379,0.505,-0.0256,0.0715,0.012,0.0202,-0.00881,-0.0333,-0.00424,-0.0264,0.0237,-0.0215,0.0242
193,0.00846,0.346,-0.0159,-0.0211,0.346,0.0296,0.0344,0.0127,0.0312,0.0108,-0.0208,-0.0229,0.0321,0.0201,-0.0136,-0.0155,-0.0153,0.0321,0.0429,0.00107,-0.0252
194,0.00738,0.0317,-0.0204,0.543,0.00385,0.279,-0.0155,-0.00755,0.0128,0.0248,-0.232,-0.238,0.0241,0.0235,-0.00118,0.281,0.0137,0.0285,0.0301,-0.0218,0.0256
195,-0.0246,0.21,0.833,-0.0321,0.211,0.0493,0.000179,0.229,0.135,-0.00619,0.0199,0.0149,-0.0273,0.017,0.0103,0.109,0.0374,0.0024,0.0473,0.016,0.00891
196,0.00971,0.295,0.014,0.0297,-0.00328,0.0889,0.543,0.101,0.0321,-0.0542,0.0125,-0.00989,0.0309,0.0285,0.02,0.0127,-0.0141,0.0598,0.129,-0.00938,0.013
197,0.0453,0.00164,0.0259,-0.00869,-0.00273,0.0306,0.439,0.0193,-0.034,-0.0237,0.0188,0.0435,0.00157,0.00391,0.00295,0.111,-0.00861,-0.0128,0.0523,0.00568,0.0337
198,-0.034,-0.0326,0.0347,0.0221,0.114,0.0149,-0.0232,-0.0192,0.881,0.0186,0.00149,-0.000377,0.00418,0.0124,0.00736,0.0348,-0.000283,-0.0293,-0.0149,0.0348,-0.0279
199,0.127,0.328,-0.229,0.56,-0.00804,0.0213,-0.00159,-0.00243,0.114,0.38,0.00642,-0.015,0.0127,0.0314,0.0348,-0.083,-0.00808,-0.00478,0.0242,0.00692,-0.0176
200,-0.0068,-0.0236,-0.066,0.000763,0.0068,0.0947,-0.0153,0.00555,-0.00722,0.286,-0.0241,-0.00331,-0.133,0.124,0.00831,-0.0162,0.04,0.00722,0.172,0.0355,0.00179
201,0.016,0.0952,-0.0143,0.00776,-0.0261,0.0456,0.0203,0.0183,0.0303,-0.0328,-0.0318,0.00124,0.0167,0.0628,0.268,0.261,0.0442,-0.0288,-0.0311,0.0779,-0.0152
202,-0.0296,-0.0533,0.545,-0.00356,0.303,0.0723,0.207,-0.0266,0.0222,0.153,-0.0213,0.703,-0.0212,0.0089,-0.0194,-0.0154,0.119,0.148,-0.00357,0.0342,0.272
203,0.0277,0.0181,0.314,0.67,0.48,0.0179,-0.0417,0.00407,0.0764,0.00753,0.194,-0.0135,0.236,-0.0162,0.0164,-0.0215,-0.0123,-0.0117,-0.00479,0.0302,0.026
204,0.0208,-0.0259,-0.00767,-0.0169,-0.0182,0.0212,0.00775,0.0201,0.00625,0.158,0.242,0.0121,0.0126,0.00414,0.142,0.352,-0.21,0.0166,-0.0169,0.0945,-0.0195
205,-0.0325,0.0262,0.121,0.0205,0.0128,0.184,0.0214,0.192,0.0662,0.0204,-0.017,-0.0864,-0.0297,-0.0011,0.158,0.169,0.00235,-0.00218,-0.00751,-0.0198,0.18
206,0.0332,0.305,-0.0229,0.0293,-0.102,0.0119,0.735,-0.0294,-0.00147,0.0306,-0.216,0.199,0.012,0.122,-0.0045,0.0215,-0.0321,0.0401,0.0155,0.0248,0.016
207,-0.0434,-0.00699,0.371,0.0153,-0.0127,0.00613,-0.0269,0.51,0.00467,-0.00759,0.111,0.24,0.0499,0.113,0.00594,0.0136,0.126,-0.0685,-0.0289,0.164,-0.00576
208,-0.00441,-0.00207,0.0237,0.466,0.0125,0.0156,-0.0211,-0.0343,-0.000402,-0.0223,0.0287,0.0162,-0.00823,0.0187,0.0626,0.00498,0.0283,0.0661,0.246,0.00754,0.0369
209,-0.0245,0.00703,-0.0348,-0.0287,-0.02,0.0697,-0.0182,0.02,0.0102,-0.00414,0.106,0.00712,-0.0309,0.00922,-0.0172,0.422,0.0994,0.00992,-0.0148,0.532,-0.0338
210,0.0174,0.134,0.0157,-0.0212,0.0167,0.0604,0.0213,0.67,0.0314,-0.0318,0.021,-0.00898,0.267,0.14,0.0179,-0.0256,0.0323,0.0169,-0.0334,0.00356,-0.0264
211,-0.01,0.00295,-0.0297,0.624,0.451,0.011,0.0265,0.0275,0.0503,0.196,-0.00478,0.0183,0.0366,0.0218,0.0244,0.0224,0.00607,-0.0204,0.00866,0.0215,-0.123
212,0.0153,0.0227,-0.0146,0.63,0.307,0.0152,0.0519,0.0307,0.00401,0.244,0.0921,-0.0147,-0.00438,0.0588,-0.00776,0.193,0.00167,0.0109,0.119,0.00171,-0.00777
213,-0.0279,-0.0302,0.00336,0.0192,0.047,0.0316,0.0126,-0.0204,0.114,0.00484,0.0948,-0.00982,-0.0154,-0.00277,0.16,-0.00396,-0.11,-0.0304,-0.00286,0.0291,0.308
214,0.021,0.0184,0.0108,0.0122,-0.00968,-0.043,0.144,0.392,0.00151,0.0154,0.00642,0.326,0.000862,-0.0184,0.0181,0.0231,0.219,0.0243,-0.033,-0.0166,0.00382
215,0.00672,0.298,-0.0346,0.451,0.0313,0.226,0.00841,0.294,-0.0319,-0.00447,-0.0136,-0.00247,-0.126,0.0524,0.442,-0.00204,0.00633,-0.0263,0.00643,0.0252,-0.00886
216,0.182,0.0441,0.307,-0.0338,0.09,-0.0113,0.147,-0.0109,0.0224,-0.0183,0.15,0.00112,-0.00239,0.0261,0.0157,0.248,-0.01,0.481,-0.0207,0.0345,0.0291
217,0.02,-0.0141,-0.0312,-0.00129,0.102,0.0425,0.0963,0.27,0.102,0.25,0.2,0.743,-0.018,-0.0298,-0.0309,0.439,0.0921,0.00704,-0.0213,0.0263,0.0246
218,-0.0151,0.0228,0.122,0.00574,0.244,0.0574,0.0998,0.568,-0.00226,0.275,0.031,0.226,-0.0134,0.00424,0.351,0.0185,0.0912,0.207,0.0249,0.406,0.083
219,-0.0123,-0.00436,0.0879,0.0185,-0.0233,0.0278,0.0108,-0.0119,-0.00401,-0.0242,0.167,-0.000112,-0.0169,0.0263,-0.0337,0.198,0.0369,0.0177,0.00828,0.0325,0.0088
220,-0.00997,0.00481,0.117,0.0139,0.574,-0.00777,-0.03,-0.000635,0.0804,0.0317,-0.0259,-0.0274,0.0287,-0.0332,0.0373,0.212,0.0729,-0.0161,0.254,0.0199,-0.0323
221,-0.0314,0.267,0.0201,-0.0735,0.0572,0.0255,0.558,0.0193,0.0366,0.206,-0.0224,-0.00596,0.301,0.0307,-0.0736,0.034,0.00161,0.635,-0.0044,0.247,0.0023
222,0.00155,-0.00464,0.0264,0.459,-0.0233,0.00446,-0.00312,0.0216,-0.0215,-0.0125,0.184,-0.0319,0.7,0.00313,0.00637,0.0131,-0.0128,0.394,-0.0231,0.202,-0.00181
223,0.0144,0.0222,0.00593,0.0336,-0.033,-0.0195,0.0071,0.0152,0.00568,0.413,0.0107,0.211,0.217,0.205,0.034,0.0322,0.00117,-0.0259,0.275,-0.0154,0.011
224,-0.0289,0.0176,0.011,0.476,-0.0332,0.139,-0.0259,-0.0256,-0.00151,-0.0349,0.0293,0.0293,-0.0827,0.00608,-0.0155,0.0257,0.0112,-0.00236,0.126,0.144,-0.00667
225,0.00526,0.689,-0.00649,0.275,-0.0236,0.16,0.00345,0.0165,0.0218,0.0247,0.0164,-0.026,-0.0308,0.0287,0.0169,-0.00814,0.0548,0.55,0.0758,-0.00301,0.0293
226,-0.034,0.00445,0.0104,-0.0198,-0.0137,0.236,0.0715,-0.0104,-0.064,0.000571,-0.0333,0.0584,0.00433,-0.0139,-0.0163,0.03,0.195,0.652,0.0282,0.0809,-0.00724
227,-0.0203,0.0236,-0.00283,0.0221,0.00821,0.00334,-0.0221,0.0105,0.0103,0.0241,0.0161,0.106,-0.0421,0.179,-0.0168,-0.031,0.424,-0.0281,0.0262,0.0264,0.00705
228,0.0258,-0.00112,0.118,0.00432,-0.0241,-0.0319,-0.00103,0.0342,0.0758,0.0274,0.00195,0.00551,-0.0319,-0.00469,-0.00524,-0.0323,-0.0268,0.685,0.0465,0.245,0.0281
229,0.0364,-0.00923,0.0348,0.0168,-0.00343,0.0988,-0.0311,0.156,0.0578,0.0168,0.0133,-0.0119,0.00166,-0.0171,0.00473,0.0216,0.0294,-0.0603,0.023,-0.0323,0.000515
230,0.0462,-0.0101,0.0185,-0.0428,0.255,-0.0284,0.0264,0.101,0.00798,0.00612,0.237,0.0529,-0.0235,0.0649,0.0115,-0.0381,-0.00116,0.0178,0.0996,0.212,-0.00902
231,0.0117,0.103,-0.0198,0.0601,0.0243,0.0316,0.224,-0.00000208,-0.00891,0.0262,0.0231,0.068,-0.0318,0.0714,0.0181,0.00542,0.0271,0.0205,-0.0336,-0.019,0.0497
232,-0.0185,0.0234,0.0898,-0.00963,0.144,0.443,0.0288,0.0932,-0.00263,0.0201,0.00767,0.0103,-0.0102,-0.0161,0.0529,-0.0128,0.226,0.017,0.0507,0.015,0.0156